0,-7.341914e-05
1,-7.341914e-05
2,-7.341914e-05
3,-7.341914e-05
4,-7.341914e-05
5,-7.341914e-05
6,-7.341914e-05
7,-7.341914e-05
8,-7.341914e-05
9,-7.341914e-05
10,-7.341914e-05
11,-7.341914e-05
12,-7.341914e-05
13,-7.341914e-05
14,-7.341914e-05
15,-7.341914e-05
16,-7.341914e-05
17,-7.341914e-05
18,-7.341914e-05
19,-7.341914e-05
20,-7.341914e-05
21,-7.341914e-05
22,-7.341914e-05
23,-7.341914e-05
24,-7.341914e-05
25,-7.341914e-05
26,-7.341914e-05
27,-7.341914e-05
28,-7.341914e-05
29,-7.341914e-05
30,-7.341914e-05
31,-7.341914e-05
32,-7.341914e-05
33,-7.341914e-05
34,-7.341914e-05
35,-7.341914e-05
36,-7.341914e-05
37,-7.341914e-05
38,-7.341914e-05
39,-7.341914e-05
40,-7.341914e-05
41,-7.341914e-05
42,-7.341914e-05
43,-7.341914e-05
44,-7.341914e-05
45,-7.341914e-05
46,-7.341914e-05
47,-7.341914e-05
48,-7.341914e-05
49,-7.341914e-05
50,-7.341914e-05
51,-7.341914e-05
52,-7.341914e-05
53,-7.341914e-05
54,-7.341914e-05
55,-7.341914e-05
56,-7.341914e-05
57,-7.341914e-05
58,-7.341914e-05
59,-7.341914e-05
60,-7.341914e-05
61,-7.341914e-05
62,-7.341914e-05
63,-7.341914e-05
64,-7.341914e-05
65,-7.341914e-05
66,-7.341914e-05
67,-7.341914e-05
68,-7.341914e-05
69,-7.341914e-05
70,-7.341914e-05
71,-7.341914e-05
72,-7.341914e-05
73,-7.341914e-05
74,-7.341914e-05
75,-7.341914e-05
76,-7.341914e-05
77,-7.341914e-05
78,-7.341914e-05
79,-7.341914e-05
80,-7.341914e-05
81,-7.341914e-05
82,-7.341914e-05
83,-7.341914e-05
84,-7.341914e-05
85,-7.341914e-05
86,-7.341914e-05
87,-7.341914e-05
88,-7.341914e-05
89,-7.341914e-05
90,-7.341914e-05
91,-7.341914e-05
92,-7.341914e-05
93,-7.341914e-05
94,-7.341914e-05
95,-7.341914e-05
96,-7.341914e-05
97,-7.341914e-05
98,-7.341914e-05
99,-7.341914e-05
100,-0.0007368574
101,-0.0007368574
102,-0.0007368574
103,-0.0007368574
104,-0.0007368574
105,-0.0007368574
106,-0.0007368574
107,-0.0007368574
108,-0.0007368574
109,-0.0007368574
110,-0.0007368574
111,-0.0007368574
112,-0.0007368574
113,-0.0007368574
114,-0.0007368574
115,-0.0007368574
116,-0.0007368574
117,-0.0007368574
118,-0.0007368574
119,-0.0007368574
120,-0.0007368574
121,-0.0007368574
122,-0.0007368574
123,-0.0007368574
124,-0.0007368574
125,-0.0007368574
126,-0.0007368574
127,-0.0007368574
128,-0.0007368574
129,-0.0007368574
130,-0.0007368574
131,-0.0007368574
132,-0.0007368574
133,-0.0007368574
134,-0.0007368574
135,-0.0007368574
136,-0.0007368574
137,-0.0007368574
138,-0.0007368574
139,-0.0007368574
140,-0.0007368574
141,-0.0007368574
142,-0.0007368574
143,-0.0007368574
144,-0.0007368574
145,-0.0007368574
146,-0.0007368574
147,-0.0007368574
148,-0.0007368574
149,-0.0007368574
150,-0.0007368574
151,-0.0007368574
152,-0.0007368574
153,-0.0007368574
154,-0.0007368574
155,-0.0007368574
156,-0.0007368574
157,-0.0007368574
158,-0.0007368574
159,-0.0007368574
160,-0.0007368574
161,-0.0007368574
162,-0.0007368574
163,-0.0007368574
164,-0.0007368574
165,-0.0007368574
166,-0.0007368574
167,-0.0007368574
168,-0.0007368574
169,-0.0007368574
170,-0.0007368574
171,-0.0007368574
172,-0.0007368574
173,-0.0007368574
174,-0.0007368574
175,-0.0007368574
176,-0.0007368574
177,-0.0007368574
178,-0.0007368574
179,-0.0007368574
180,-0.0007368574
181,-0.0007368574
182,-0.0007368574
183,-0.0007368574
184,-0.0007368574
185,-0.0007368574
186,-0.0007368574
187,-0.0007368574
188,-0.0007368574
189,-0.0007368574
190,-0.0007368574
191,-0.0007368574
192,-0.0007368574
193,-0.0007368574
194,-0.0007368574
195,-0.0007368574
196,-0.0007368574
197,-0.0007368574
198,-0.0007368574
199,-0.0007368574
200,-0.0031492738
201,-0.0031492738
202,-0.0031492738
203,-0.0031492738
204,-0.0031492738
205,-0.0031492738
206,-0.0031492738
207,-0.0031492738
208,-0.0031492738
209,-0.0031492738
210,-0.0031492738
211,-0.0031492738
212,-0.0031492738
213,-0.0031492738
214,-0.0031492738
215,-0.0031492738
216,-0.0031492738
217,-0.0031492738
218,-0.0031492738
219,-0.0031492738
220,-0.0031492738
221,-0.0031492738
222,-0.0031492738
223,-0.0031492738
224,-0.0031492738
225,-0.0031492738
226,-0.0031492738
227,-0.0031492738
228,-0.0031492738
229,-0.0031492738
230,-0.0031492738
231,-0.0031492738
232,-0.0031492738
233,-0.0031492738
234,-0.0031492738
235,-0.0031492738
236,-0.0031492738
237,-0.0031492738
238,-0.0031492738
239,-0.0031492738
240,-0.0031492738
241,-0.0031492738
242,-0.0031492738
243,-0.0031492738
244,-0.0031492738
245,-0.0031492738
246,-0.0031492738
247,-0.0031492738
248,-0.0031492738
249,-0.0031492738
250,-0.0031492738
251,-0.0031492738
252,-0.0031492738
253,-0.0031492738
254,-0.0031492738
255,-0.0031492738
256,-0.0031492738
257,-0.0031492738
258,-0.0031492738
259,-0.0031492738
260,-0.0031492738
261,-0.0031492738
262,-0.0031492738
263,-0.0031492738
264,-0.0031492738
265,-0.0031492738
266,-0.0031492738
267,-0.0031492738
268,-0.0031492738
269,-0.0031492738
270,-0.0031492738
271,-0.0031492738
272,-0.0031492738
273,-0.0031492738
274,-0.0031492738
275,-0.0031492738
276,-0.0031492738
277,-0.0031492738
278,-0.0031492738
279,-0.0031492738
280,-0.0031492738
281,-0.0031492738
282,-0.0031492738
283,-0.0031492738
284,-0.0031492738
285,-0.0031492738
286,-0.0031492738
287,-0.0031492738
288,-0.0031492738
289,-0.0031492738
290,-0.0031492738
291,-0.0031492738
292,-0.0031492738
293,-0.0031492738
294,-0.0031492738
295,-0.0031492738
296,-0.0031492738
297,-0.0031492738
298,-0.0031492738
299,-0.0031492738
300,-0.0021876995
301,-0.0021876995
302,-0.0021876995
303,-0.0021876995
304,-0.0021876995
305,-0.0021876995
306,-0.0021876995
307,-0.0021876995
308,-0.0021876995
309,-0.0021876995
310,-0.0021876995
311,-0.0021876995
312,-0.0021876995
313,-0.0021876995
314,-0.0021876995
315,-0.0021876995
316,-0.0021876995
317,-0.0021876995
318,-0.0021876995
319,-0.0021876995
320,-0.0021876995
321,-0.0021876995
322,-0.0021876995
323,-0.0021876995
324,-0.0021876995
325,-0.0021876995
326,-0.0021876995
327,-0.0021876995
328,-0.0021876995
329,-0.0021876995
330,-0.0021876995
331,-0.0021876995
332,-0.0021876995
333,-0.0021876995
334,-0.0021876995
335,-0.0021876995
336,-0.0021876995
337,-0.0021876995
338,-0.0021876995
339,-0.0021876995
340,-0.0021876995
341,-0.0021876995
342,-0.0021876995
343,-0.0021876995
344,-0.0021876995
345,-0.0021876995
346,-0.0021876995
347,-0.0021876995
348,-0.0021876995
349,-0.0021876995
350,-0.0021876995
351,-0.0021876995
352,-0.0021876995
353,-0.0021876995
354,-0.0021876995
355,-0.0021876995
356,-0.0021876995
357,-0.0021876995
358,-0.0021876995
359,-0.0021876995
360,-0.0021876995
361,-0.0021876995
362,-0.0021876995
363,-0.0021876995
364,-0.0021876995
365,-0.0021876995
366,-0.0021876995
367,-0.0021876995
368,-0.0021876995
369,-0.0021876995
370,-0.0021876995
371,-0.0021876995
372,-0.0021876995
373,-0.0021876995
374,-0.0021876995
375,-0.0021876995
376,-0.0021876995
377,-0.0021876995
378,-0.0021876995
379,-0.0021876995
380,-0.0021876995
381,-0.0021876995
382,-0.0021876995
383,-0.0021876995
384,-0.0021876995
385,-0.0021876995
386,-0.0021876995
387,-0.0021876995
388,-0.0021876995
389,-0.0021876995
390,-0.0021876995
391,-0.0021876995
392,-0.0021876995
393,-0.0021876995
394,-0.0021876995
395,-0.0021876995
396,-0.0021876995
397,-0.0021876995
398,-0.0021876995
399,-0.0021876995
